Language model created by QuickLM on Tue Dec 15 19:45:41 EST 2015
Copyright (c) 1996-2010 Carnegie Mellon University and Alexander I. Rudnicky

The model is in standard ARPA format, designed by Doug Paul while he was at MITRE.

The code that was used to produce this language model is available in Open Source.
Please visit http://www.speech.cs.cmu.edu/tools/ for more information

The (fixed) discount mass is 0.5. The backoffs are computed using the ratio method.
This model based on a corpus of 16 sentences and 19 words

\data\
ngram 1=19
ngram 2=33
ngram 3=18

\1-grams:
-0.7959 </s> -0.3010
-0.7959 <s> -0.2253
-2.0000 ALL -0.2967
-2.0000 EIGHT -0.2253
-2.0000 FIVE -0.2253
-2.0000 FOUR -0.2253
-2.0000 NINE -0.2253
-1.6990 NO -0.2201
-2.0000 NOT -0.2253
-2.0000 OKAY -0.2253
-2.0000 ONE -0.2253
-2.0000 PROBLEM -0.2253
-2.0000 RIGHT -0.2253
-2.0000 SEVEN -0.2253
-2.0000 SIX -0.2253
-2.0000 TEN -0.2253
-2.0000 THREE -0.2253
-2.0000 TWO -0.2253
-2.0000 YES -0.2253

\2-grams:
-1.5051 <s> ALL 0.0000
-1.5051 <s> EIGHT 0.0000
-1.5051 <s> FIVE 0.0000
-1.5051 <s> FOUR 0.0000
-1.5051 <s> NINE 0.0000
-1.2041 <s> NO 0.0000
-1.5051 <s> NOT 0.0000
-1.5051 <s> OKAY 0.0000
-1.5051 <s> ONE 0.0000
-1.5051 <s> SEVEN 0.0000
-1.5051 <s> SIX 0.0000
-1.5051 <s> TEN 0.0000
-1.5051 <s> THREE 0.0000
-1.5051 <s> TWO 0.0000
-1.5051 <s> YES 0.0000
-0.3010 ALL RIGHT 0.0000
-0.3010 EIGHT </s> -0.3010
-0.3010 FIVE </s> -0.3010
-0.3010 FOUR </s> -0.3010
-0.3010 NINE </s> -0.3010
-0.6021 NO </s> -0.3010
-0.6021 NO PROBLEM 0.0000
-0.3010 NOT </s> -0.3010
-0.3010 OKAY </s> -0.3010
-0.3010 ONE </s> -0.3010
-0.3010 PROBLEM </s> -0.3010
-0.3010 RIGHT </s> -0.3010
-0.3010 SEVEN </s> -0.3010
-0.3010 SIX </s> -0.3010
-0.3010 TEN </s> -0.3010
-0.3010 THREE </s> -0.3010
-0.3010 TWO </s> -0.3010
-0.3010 YES </s> -0.3010

\3-grams:
-0.3010 <s> ALL RIGHT
-0.3010 <s> EIGHT </s>
-0.3010 <s> FIVE </s>
-0.3010 <s> FOUR </s>
-0.3010 <s> NINE </s>
-0.6021 <s> NO </s>
-0.6021 <s> NO PROBLEM
-0.3010 <s> NOT </s>
-0.3010 <s> OKAY </s>
-0.3010 <s> ONE </s>
-0.3010 <s> SEVEN </s>
-0.3010 <s> SIX </s>
-0.3010 <s> TEN </s>
-0.3010 <s> THREE </s>
-0.3010 <s> TWO </s>
-0.3010 <s> YES </s>
-0.3010 ALL RIGHT </s>
-0.3010 NO PROBLEM </s>

\end\
